digraph Tree {
node [shape=box] ;
0 [label="Cost <= 43500.0\ngini = 0.43\nsamples = 32\nvalue = [10, 22]"] ;
1 [label="Family <= 0.5\ngini = 0.308\nsamples = 21\nvalue = [4, 17]"] ;
0 -> 1 [labeldistance=2.5, labelangle=45, headlabel="True"] ;
2 [label="Duration <= 4.5\ngini = 0.408\nsamples = 7\nvalue = [2, 5]"] ;
1 -> 2 ;
3 [label="gini = 0.278\nsamples = 6\nvalue = [1, 5]"] ;
2 -> 3 ;
4 [label="gini = 0.0\nsamples = 1\nvalue = [1, 0]"] ;
2 -> 4 ;
5 [label="Duration <= 2.5\ngini = 0.245\nsamples = 14\nvalue = [2, 12]"] ;
1 -> 5 ;
6 [label="gini = 0.5\nsamples = 2\nvalue = [1, 1]"] ;
5 -> 6 ;
7 [label="gini = 0.153\nsamples = 12\nvalue = [1, 11]"] ;
5 -> 7 ;
8 [label="Duration <= 6.5\ngini = 0.496\nsamples = 11\nvalue = [6, 5]"] ;
0 -> 8 [labeldistance=2.5, labelangle=-45, headlabel="False"] ;
9 [label="Cost <= 57500.0\ngini = 0.48\nsamples = 10\nvalue = [6, 4]"] ;
8 -> 9 ;
10 [label="gini = 0.408\nsamples = 7\nvalue = [5, 2]"] ;
9 -> 10 ;
11 [label="gini = 0.444\nsamples = 3\nvalue = [1, 2]"] ;
9 -> 11 ;
12 [label="gini = 0.0\nsamples = 1\nvalue = [0, 1]"] ;
8 -> 12 ;
}